digraph Tree {
node [shape=box, style="filled, rounded", color="black", fontname="helvetica"] ;
edge [fontname="helvetica"] ;
0 [label="Riverside <= 0.5\ngini = 0.966\nsamples = 29\nvalue = [[1, 1, 1, 1, 1, 1, 1, 1, 1, 1, 1, 1, 1, 1\n 1, 1, 1, 1, 1, 1, 1, 1, 1, 1, 1, 1, 1, 1\n 1]\n[1, 1, 1, 1, 1, 1, 1, 1, 1, 1, 1, 1, 1, 1\n 1, 1, 1, 1, 1, 1, 1, 1, 1, 1, 1, 1, 1, 1\n 1]\n[1, 1, 1, 1, 1, 1, 1, 1, 1, 1, 1, 1, 1, 1\n 1, 1, 1, 1, 1, 1, 1, 1, 1, 1, 1, 1, 1, 1\n 1]]", fillcolor="#ffffff"] ;
1 [label="Food <= 0.5\ngini = 0.909\nsamples = 11\nvalue = [[0, 0, 0, 0, 1, 0, 1, 1, 0, 0, 0, 1, 0, 1\n 0, 1, 1, 0, 0, 0, 0, 0, 1, 1, 0, 1, 1, 0\n 0]\n[0, 0, 0, 1, 0, 0, 0, 0, 1, 1, 0, 1, 0, 1\n 0, 1, 0, 0, 0, 0, 0, 1, 1, 1, 1, 0, 1, 0\n 0]\n[1, 1, 0, 0, 1, 1, 0, 0, 0, 0, 1, 1, 1, 0\n 0, 0, 1, 0, 0, 0, 0, 0, 0, 0, 1, 0, 1, 0\n 1]]", fillcolor="#fdf8f3"] ;
0 -> 1 [labeldistance=2.5, labelangle=45, headlabel="True"] ;
2 [label="City <= 0.5\ngini = 0.889\nsamples = 9\nvalue = [[0, 0, 0, 0, 1, 0, 1, 1, 0, 0, 0, 0, 0, 1\n 0, 0, 1, 0, 0, 0, 0, 0, 1, 1, 0, 1, 1, 0\n 0]\n[0, 0, 0, 1, 0, 0, 0, 0, 1, 0, 0, 1, 0, 0\n 0, 1, 0, 0, 0, 0, 0, 1, 1, 1, 1, 0, 1, 0\n 0]\n[1, 1, 0, 0, 1, 1, 0, 0, 0, 0, 1, 0, 1, 0\n 0, 0, 0, 0, 0, 0, 0, 0, 0, 0, 1, 0, 1, 0\n 1]]", fillcolor="#fdf5ef"] ;
1 -> 2 ;
3 [label="Train + Bike <= 0.5\ngini = 0.875\nsamples = 8\nvalue = [[0, 0, 0, 0, 1, 0, 1, 1, 0, 0, 0, 0, 0, 0\n 0, 0, 1, 0, 0, 0, 0, 0, 1, 1, 0, 1, 1, 0\n 0]\n[0, 0, 0, 1, 0, 0, 0, 0, 1, 0, 0, 0, 0, 0\n 0, 1, 0, 0, 0, 0, 0, 1, 1, 1, 1, 0, 1, 0\n 0]\n[1, 0, 0, 0, 1, 1, 0, 0, 0, 0, 1, 0, 1, 0\n 0, 0, 0, 0, 0, 0, 0, 0, 0, 0, 1, 0, 1, 0\n 1]]", fillcolor="#fdf3ec"] ;
2 -> 3 ;
4 [label="Bus <= 0.5\ngini = 0.857\nsamples = 7\nvalue = [[0, 0, 0, 0, 1, 0, 1, 0, 0, 0, 0, 0, 0, 0\n 0, 0, 1, 0, 0, 0, 0, 0, 1, 1, 0, 1, 1, 0\n 0]\n[0, 0, 0, 1, 0, 0, 0, 0, 1, 0, 0, 0, 0, 0\n 0, 1, 0, 0, 0, 0, 0, 1, 1, 0, 1, 0, 1, 0\n 0]\n[1, 0, 0, 0, 1, 1, 0, 0, 0, 0, 1, 0, 1, 0\n 0, 0, 0, 0, 0, 0, 0, 0, 0, 0, 1, 0, 0, 0\n 1]]", fillcolor="#fcf1e9"] ;
3 -> 4 ;
5 [label="Mountains <= 0.5\ngini = 0.75\nsamples = 4\nvalue = [[0, 0, 0, 0, 1, 0, 1, 0, 0, 0, 0, 0, 0, 0\n 0, 0, 1, 0, 0, 0, 0, 0, 0, 0, 0, 0, 1, 0\n 0]\n[0, 0, 0, 1, 0, 0, 0, 0, 1, 0, 0, 0, 0, 0\n 0, 0, 0, 0, 0, 0, 0, 1, 0, 0, 0, 0, 1, 0\n 0]\n[1, 0, 0, 0, 1, 1, 0, 0, 0, 0, 1, 0, 0, 0\n 0, 0, 0, 0, 0, 0, 0, 0, 0, 0, 0, 0, 0, 0\n 0]]", fillcolor="#f9e3d3"] ;
4 -> 5 ;
6 [label="Seaside <= 0.5\ngini = 0.667\nsamples = 3\nvalue = [[0, 0, 0, 0, 0, 0, 1, 0, 0, 0, 0, 0, 0, 0\n 0, 0, 1, 0, 0, 0, 0, 0, 0, 0, 0, 0, 1, 0\n 0]\n[0, 0, 0, 1, 0, 0, 0, 0, 1, 0, 0, 0, 0, 0\n 0, 0, 0, 0, 0, 0, 0, 1, 0, 0, 0, 0, 0, 0\n 0]\n[1, 0, 0, 0, 0, 1, 0, 0, 0, 0, 1, 0, 0, 0\n 0, 0, 0, 0, 0, 0, 0, 0, 0, 0, 0, 0, 0, 0\n 0]]", fillcolor="#f7d8c2"] ;
5 -> 6 ;
7 [label="gini = 0.0\nsamples = 1\nvalue = [[0, 0, 0, 0, 0, 0, 0, 0, 0, 0, 0, 0, 0, 0\n 0, 0, 1, 0, 0, 0, 0, 0, 0, 0, 0, 0, 0, 0\n 0]\n[0, 0, 0, 0, 0, 0, 0, 0, 1, 0, 0, 0, 0, 0\n 0, 0, 0, 0, 0, 0, 0, 0, 0, 0, 0, 0, 0, 0\n 0]\n[0, 0, 0, 0, 0, 1, 0, 0, 0, 0, 0, 0, 0, 0\n 0, 0, 0, 0, 0, 0, 0, 0, 0, 0, 0, 0, 0, 0\n 0]]", fillcolor="#e58139"] ;
6 -> 7 ;
8 [label="gini = 0.5\nsamples = 2\nvalue = [[0, 0, 0, 0, 0, 0, 1, 0, 0, 0, 0, 0, 0, 0\n 0, 0, 0, 0, 0, 0, 0, 0, 0, 0, 0, 0, 1, 0\n 0]\n[0, 0, 0, 1, 0, 0, 0, 0, 0, 0, 0, 0, 0, 0\n 0, 0, 0, 0, 0, 0, 0, 1, 0, 0, 0, 0, 0, 0\n 0]\n[1, 0, 0, 0, 0, 0, 0, 0, 0, 0, 1, 0, 0, 0\n 0, 0, 0, 0, 0, 0, 0, 0, 0, 0, 0, 0, 0, 0\n 0]]", fillcolor="#f2c2a0"] ;
6 -> 8 ;
9 [label="gini = 0.0\nsamples = 1\nvalue = [[0, 0, 0, 0, 1, 0, 0, 0, 0, 0, 0, 0, 0, 0\n 0, 0, 0, 0, 0, 0, 0, 0, 0, 0, 0, 0, 0, 0\n 0]\n[0, 0, 0, 0, 0, 0, 0, 0, 0, 0, 0, 0, 0, 0\n 0, 0, 0, 0, 0, 0, 0, 0, 0, 0, 0, 0, 1, 0\n 0]\n[0, 0, 0, 0, 1, 0, 0, 0, 0, 0, 0, 0, 0, 0\n 0, 0, 0, 0, 0, 0, 0, 0, 0, 0, 0, 0, 0, 0\n 0]]", fillcolor="#e58139"] ;
5 -> 9 ;
10 [label="Seaside <= 0.5\ngini = 0.667\nsamples = 3\nvalue = [[0, 0, 0, 0, 0, 0, 0, 0, 0, 0, 0, 0, 0, 0\n 0, 0, 0, 0, 0, 0, 0, 0, 1, 1, 0, 1, 0, 0\n 0]\n[0, 0, 0, 0, 0, 0, 0, 0, 0, 0, 0, 0, 0, 0\n 0, 1, 0, 0, 0, 0, 0, 0, 1, 0, 1, 0, 0, 0\n 0]\n[0, 0, 0, 0, 0, 0, 0, 0, 0, 0, 0, 0, 1, 0\n 0, 0, 0, 0, 0, 0, 0, 0, 0, 0, 1, 0, 0, 0\n 1]]", fillcolor="#f7d8c2"] ;
4 -> 10 ;
11 [label="gini = 0.0\nsamples = 1\nvalue = [[0, 0, 0, 0, 0, 0, 0, 0, 0, 0, 0, 0, 0, 0\n 0, 0, 0, 0, 0, 0, 0, 0, 0, 1, 0, 0, 0, 0\n 0]\n[0, 0, 0, 0, 0, 0, 0, 0, 0, 0, 0, 0, 0, 0\n 0, 0, 0, 0, 0, 0, 0, 0, 0, 0, 1, 0, 0, 0\n 0]\n[0, 0, 0, 0, 0, 0, 0, 0, 0, 0, 0, 0, 1, 0\n 0, 0, 0, 0, 0, 0, 0, 0, 0, 0, 0, 0, 0, 0\n 0]]", fillcolor="#e58139"] ;
10 -> 11 ;
12 [label="gini = 0.5\nsamples = 2\nvalue = [[0, 0, 0, 0, 0, 0, 0, 0, 0, 0, 0, 0, 0, 0\n 0, 0, 0, 0, 0, 0, 0, 0, 1, 0, 0, 1, 0, 0\n 0]\n[0, 0, 0, 0, 0, 0, 0, 0, 0, 0, 0, 0, 0, 0\n 0, 1, 0, 0, 0, 0, 0, 0, 1, 0, 0, 0, 0, 0\n 0]\n[0, 0, 0, 0, 0, 0, 0, 0, 0, 0, 0, 0, 0, 0\n 0, 0, 0, 0, 0, 0, 0, 0, 0, 0, 1, 0, 0, 0\n 1]]", fillcolor="#f2c2a0"] ;
10 -> 12 ;
13 [label="gini = 0.0\nsamples = 1\nvalue = [[0, 0, 0, 0, 0, 0, 0, 1, 0, 0, 0, 0, 0, 0\n 0, 0, 0, 0, 0, 0, 0, 0, 0, 0, 0, 0, 0, 0\n 0]\n[0, 0, 0, 0, 0, 0, 0, 0, 0, 0, 0, 0, 0, 0\n 0, 0, 0, 0, 0, 0, 0, 0, 0, 1, 0, 0, 0, 0\n 0]\n[0, 0, 0, 0, 0, 0, 0, 0, 0, 0, 0, 0, 0, 0\n 0, 0, 0, 0, 0, 0, 0, 0, 0, 0, 0, 0, 1, 0\n 0]]", fillcolor="#e58139"] ;
3 -> 13 ;
14 [label="gini = 0.0\nsamples = 1\nvalue = [[0, 0, 0, 0, 0, 0, 0, 0, 0, 0, 0, 0, 0, 1\n 0, 0, 0, 0, 0, 0, 0, 0, 0, 0, 0, 0, 0, 0\n 0]\n[0, 0, 0, 0, 0, 0, 0, 0, 0, 0, 0, 1, 0, 0\n 0, 0, 0, 0, 0, 0, 0, 0, 0, 0, 0, 0, 0, 0\n 0]\n[0, 1, 0, 0, 0, 0, 0, 0, 0, 0, 0, 0, 0, 0\n 0, 0, 0, 0, 0, 0, 0, 0, 0, 0, 0, 0, 0, 0\n 0]]", fillcolor="#e58139"] ;
2 -> 14 ;
15 [label="Mountains <= 0.5\ngini = 0.5\nsamples = 2\nvalue = [[0, 0, 0, 0, 0, 0, 0, 0, 0, 0, 0, 1, 0, 0\n 0, 1, 0, 0, 0, 0, 0, 0, 0, 0, 0, 0, 0, 0\n 0]\n[0, 0, 0, 0, 0, 0, 0, 0, 0, 1, 0, 0, 0, 1\n 0, 0, 0, 0, 0, 0, 0, 0, 0, 0, 0, 0, 0, 0\n 0]\n[0, 0, 0, 0, 0, 0, 0, 0, 0, 0, 0, 1, 0, 0\n 0, 0, 1, 0, 0, 0, 0, 0, 0, 0, 0, 0, 0, 0\n 0]]", fillcolor="#f2c2a0"] ;
1 -> 15 ;
16 [label="gini = 0.0\nsamples = 1\nvalue = [[0, 0, 0, 0, 0, 0, 0, 0, 0, 0, 0, 0, 0, 0\n 0, 1, 0, 0, 0, 0, 0, 0, 0, 0, 0, 0, 0, 0\n 0]\n[0, 0, 0, 0, 0, 0, 0, 0, 0, 0, 0, 0, 0, 1\n 0, 0, 0, 0, 0, 0, 0, 0, 0, 0, 0, 0, 0, 0\n 0]\n[0, 0, 0, 0, 0, 0, 0, 0, 0, 0, 0, 0, 0, 0\n 0, 0, 1, 0, 0, 0, 0, 0, 0, 0, 0, 0, 0, 0\n 0]]", fillcolor="#e58139"] ;
15 -> 16 ;
17 [label="gini = 0.0\nsamples = 1\nvalue = [[0, 0, 0, 0, 0, 0, 0, 0, 0, 0, 0, 1, 0, 0\n 0, 0, 0, 0, 0, 0, 0, 0, 0, 0, 0, 0, 0, 0\n 0]\n[0, 0, 0, 0, 0, 0, 0, 0, 0, 1, 0, 0, 0, 0\n 0, 0, 0, 0, 0, 0, 0, 0, 0, 0, 0, 0, 0, 0\n 0]\n[0, 0, 0, 0, 0, 0, 0, 0, 0, 0, 0, 1, 0, 0\n 0, 0, 0, 0, 0, 0, 0, 0, 0, 0, 0, 0, 0, 0\n 0]]", fillcolor="#e58139"] ;
15 -> 17 ;
18 [label="Party <= 0.5\ngini = 0.944\nsamples = 18\nvalue = [[1, 1, 1, 1, 0, 1, 0, 0, 1, 1, 1, 0, 1, 0\n 1, 0, 0, 1, 1, 1, 1, 1, 0, 0, 1, 0, 0, 1\n 1]\n[1, 1, 1, 0, 1, 1, 1, 1, 0, 0, 1, 0, 1, 0\n 1, 0, 1, 1, 1, 1, 1, 0, 0, 0, 0, 1, 0, 1\n 1]\n[0, 0, 1, 1, 0, 0, 1, 1, 1, 1, 0, 0, 0, 1\n 1, 1, 0, 1, 1, 1, 1, 1, 1, 1, 0, 1, 0, 1\n 0]]", fillcolor="#fefcfb"] ;
0 -> 18 [labeldistance=2.5, labelangle=-45, headlabel="False"] ;
19 [label="Train + Bike <= 0.5\ngini = 0.933\nsamples = 15\nvalue = [[1, 1, 1, 1, 0, 1, 0, 0, 1, 1, 0, 0, 0, 0\n 1, 0, 0, 1, 1, 0, 1, 1, 0, 0, 1, 0, 0, 1\n 1]\n[1, 0, 1, 0, 1, 1, 1, 1, 0, 0, 1, 0, 0, 0\n 1, 0, 1, 1, 1, 1, 0, 0, 0, 0, 0, 1, 0, 1\n 1]\n[0, 0, 1, 1, 0, 0, 1, 1, 1, 1, 0, 0, 0, 0\n 1, 1, 0, 0, 0, 1, 1, 1, 1, 1, 0, 1, 0, 1\n 0]]", fillcolor="#fefbf8"] ;
18 -> 19 ;
20 [label="Relaxing <= 0.5\ngini = 0.929\nsamples = 14\nvalue = [[1, 1, 1, 1, 0, 1, 0, 0, 1, 1, 0, 0, 0, 0\n 1, 0, 0, 1, 1, 0, 1, 1, 0, 0, 1, 0, 0, 0\n 1]\n[1, 0, 1, 0, 1, 1, 1, 1, 0, 0, 1, 0, 0, 0\n 1, 0, 1, 1, 1, 1, 0, 0, 0, 0, 0, 1, 0, 1\n 0]\n[0, 0, 1, 1, 0, 0, 1, 1, 1, 1, 0, 0, 0, 0\n 1, 1, 0, 0, 0, 1, 1, 1, 0, 1, 0, 1, 0, 1\n 0]]", fillcolor="#fefaf7"] ;
19 -> 20 ;
21 [label="Active Holiday <= 0.5\ngini = 0.875\nsamples = 8\nvalue = [[0, 0, 1, 1, 0, 0, 0, 0, 1, 1, 0, 0, 0, 0\n 1, 0, 0, 0, 0, 0, 1, 1, 0, 0, 0, 0, 0, 0\n 1]\n[0, 0, 1, 0, 1, 1, 1, 1, 0, 0, 0, 0, 0, 0\n 1, 0, 0, 0, 0, 0, 0, 0, 0, 0, 0, 1, 0, 1\n 0]\n[0, 0, 0, 1, 0, 0, 0, 0, 0, 0, 0, 0, 0, 0\n 1, 0, 0, 0, 0, 1, 1, 1, 0, 1, 0, 1, 0, 1\n 0]]", fillcolor="#fdf3ec"] ;
20 -> 21 ;
22 [label="Food <= 0.5\ngini = 0.857\nsamples = 7\nvalue = [[0, 0, 1, 1, 0, 0, 0, 0, 1, 1, 0, 0, 0, 0\n 1, 0, 0, 0, 0, 0, 1, 0, 0, 0, 0, 0, 0, 0\n 1]\n[0, 0, 1, 0, 0, 1, 1, 1, 0, 0, 0, 0, 0, 0\n 1, 0, 0, 0, 0, 0, 0, 0, 0, 0, 0, 1, 0, 1\n 0]\n[0, 0, 0, 1, 0, 0, 0, 0, 0, 0, 0, 0, 0, 0\n 1, 0, 0, 0, 0, 1, 1, 1, 0, 1, 0, 0, 0, 1\n 0]]", fillcolor="#fcf1e9"] ;
21 -> 22 ;
23 [label="Bus <= 0.5\ngini = 0.75\nsamples = 4\nvalue = [[0, 0, 1, 0, 0, 0, 0, 0, 0, 1, 0, 0, 0, 0\n 1, 0, 0, 0, 0, 0, 0, 0, 0, 0, 0, 0, 0, 0\n 1]\n[0, 0, 0, 0, 0, 0, 1, 1, 0, 0, 0, 0, 0, 0\n 0, 0, 0, 0, 0, 0, 0, 0, 0, 0, 0, 1, 0, 1\n 0]\n[0, 0, 0, 0, 0, 0, 0, 0, 0, 0, 0, 0, 0, 0\n 1, 0, 0, 0, 0, 0, 1, 1, 0, 0, 0, 0, 0, 1\n 0]]", fillcolor="#f9e3d3"] ;
22 -> 23 ;
24 [label="gini = 0.0\nsamples = 1\nvalue = [[0, 0, 0, 0, 0, 0, 0, 0, 0, 0, 0, 0, 0, 0\n 1, 0, 0, 0, 0, 0, 0, 0, 0, 0, 0, 0, 0, 0\n 0]\n[0, 0, 0, 0, 0, 0, 0, 0, 0, 0, 0, 0, 0, 0\n 0, 0, 0, 0, 0, 0, 0, 0, 0, 0, 0, 0, 0, 1\n 0]\n[0, 0, 0, 0, 0, 0, 0, 0, 0, 0, 0, 0, 0, 0\n 1, 0, 0, 0, 0, 0, 0, 0, 0, 0, 0, 0, 0, 0\n 0]]", fillcolor="#e58139"] ;
23 -> 24 ;
25 [label="gini = 0.667\nsamples = 3\nvalue = [[0, 0, 1, 0, 0, 0, 0, 0, 0, 1, 0, 0, 0, 0\n 0, 0, 0, 0, 0, 0, 0, 0, 0, 0, 0, 0, 0, 0\n 1]\n[0, 0, 0, 0, 0, 0, 1, 1, 0, 0, 0, 0, 0, 0\n 0, 0, 0, 0, 0, 0, 0, 0, 0, 0, 0, 1, 0, 0\n 0]\n[0, 0, 0, 0, 0, 0, 0, 0, 0, 0, 0, 0, 0, 0\n 0, 0, 0, 0, 0, 0, 1, 1, 0, 0, 0, 0, 0, 1\n 0]]", fillcolor="#f7d8c2"] ;
23 -> 25 ;
26 [label="Bus <= 0.5\ngini = 0.667\nsamples = 3\nvalue = [[0, 0, 0, 1, 0, 0, 0, 0, 1, 0, 0, 0, 0, 0\n 0, 0, 0, 0, 0, 0, 1, 0, 0, 0, 0, 0, 0, 0\n 0]\n[0, 0, 1, 0, 0, 1, 0, 0, 0, 0, 0, 0, 0, 0\n 1, 0, 0, 0, 0, 0, 0, 0, 0, 0, 0, 0, 0, 0\n 0]\n[0, 0, 0, 1, 0, 0, 0, 0, 0, 0, 0, 0, 0, 0\n 0, 0, 0, 0, 0, 1, 0, 0, 0, 1, 0, 0, 0, 0\n 0]]", fillcolor="#f7d8c2"] ;
22 -> 26 ;
27 [label="gini = 0.0\nsamples = 1\nvalue = [[0, 0, 0, 0, 0, 0, 0, 0, 0, 0, 0, 0, 0, 0\n 0, 0, 0, 0, 0, 0, 1, 0, 0, 0, 0, 0, 0, 0\n 0]\n[0, 0, 0, 0, 0, 0, 0, 0, 0, 0, 0, 0, 0, 0\n 1, 0, 0, 0, 0, 0, 0, 0, 0, 0, 0, 0, 0, 0\n 0]\n[0, 0, 0, 0, 0, 0, 0, 0, 0, 0, 0, 0, 0, 0\n 0, 0, 0, 0, 0, 1, 0, 0, 0, 0, 0, 0, 0, 0\n 0]]", fillcolor="#e58139"] ;
26 -> 27 ;
28 [label="gini = 0.5\nsamples = 2\nvalue = [[0, 0, 0, 1, 0, 0, 0, 0, 1, 0, 0, 0, 0, 0\n 0, 0, 0, 0, 0, 0, 0, 0, 0, 0, 0, 0, 0, 0\n 0]\n[0, 0, 1, 0, 0, 1, 0, 0, 0, 0, 0, 0, 0, 0\n 0, 0, 0, 0, 0, 0, 0, 0, 0, 0, 0, 0, 0, 0\n 0]\n[0, 0, 0, 1, 0, 0, 0, 0, 0, 0, 0, 0, 0, 0\n 0, 0, 0, 0, 0, 0, 0, 0, 0, 1, 0, 0, 0, 0\n 0]]", fillcolor="#f2c2a0"] ;
26 -> 28 ;
29 [label="gini = 0.0\nsamples = 1\nvalue = [[0, 0, 0, 0, 0, 0, 0, 0, 0, 0, 0, 0, 0, 0\n 0, 0, 0, 0, 0, 0, 0, 1, 0, 0, 0, 0, 0, 0\n 0]\n[0, 0, 0, 0, 1, 0, 0, 0, 0, 0, 0, 0, 0, 0\n 0, 0, 0, 0, 0, 0, 0, 0, 0, 0, 0, 0, 0, 0\n 0]\n[0, 0, 0, 0, 0, 0, 0, 0, 0, 0, 0, 0, 0, 0\n 0, 0, 0, 0, 0, 0, 0, 0, 0, 0, 0, 1, 0, 0\n 0]]", fillcolor="#e58139"] ;
21 -> 29 ;
30 [label="Bus <= 0.5\ngini = 0.833\nsamples = 6\nvalue = [[1, 1, 0, 0, 0, 1, 0, 0, 0, 0, 0, 0, 0, 0\n 0, 0, 0, 1, 1, 0, 0, 0, 0, 0, 1, 0, 0, 0\n 0]\n[1, 0, 0, 0, 0, 0, 0, 0, 0, 0, 1, 0, 0, 0\n 0, 0, 1, 1, 1, 1, 0, 0, 0, 0, 0, 0, 0, 0\n 0]\n[0, 0, 1, 0, 0, 0, 1, 1, 1, 1, 0, 0, 0, 0\n 0, 1, 0, 0, 0, 0, 0, 0, 0, 0, 0, 0, 0, 0\n 0]]", fillcolor="#fbeee4"] ;
20 -> 30 ;
31 [label="Culture <= 0.5\ngini = 0.75\nsamples = 4\nvalue = [[1, 0, 0, 0, 0, 1, 0, 0, 0, 0, 0, 0, 0, 0\n 0, 0, 0, 0, 1, 0, 0, 0, 0, 0, 1, 0, 0, 0\n 0]\n[1, 0, 0, 0, 0, 0, 0, 0, 0, 0, 0, 0, 0, 0\n 0, 0, 1, 1, 0, 1, 0, 0, 0, 0, 0, 0, 0, 0\n 0]\n[0, 0, 0, 0, 0, 0, 1, 1, 1, 0, 0, 0, 0, 0\n 0, 1, 0, 0, 0, 0, 0, 0, 0, 0, 0, 0, 0, 0\n 0]]", fillcolor="#f9e3d3"] ;
30 -> 31 ;
32 [label="Active Holiday <= 0.5\ngini = 0.667\nsamples = 3\nvalue = [[1, 0, 0, 0, 0, 1, 0, 0, 0, 0, 0, 0, 0, 0\n 0, 0, 0, 0, 1, 0, 0, 0, 0, 0, 0, 0, 0, 0\n 0]\n[0, 0, 0, 0, 0, 0, 0, 0, 0, 0, 0, 0, 0, 0\n 0, 0, 1, 1, 0, 1, 0, 0, 0, 0, 0, 0, 0, 0\n 0]\n[0, 0, 0, 0, 0, 0, 1, 1, 1, 0, 0, 0, 0, 0\n 0, 0, 0, 0, 0, 0, 0, 0, 0, 0, 0, 0, 0, 0\n 0]]", fillcolor="#f7d8c2"] ;
31 -> 32 ;
33 [label="gini = 0.0\nsamples = 1\nvalue = [[0, 0, 0, 0, 0, 0, 0, 0, 0, 0, 0, 0, 0, 0\n 0, 0, 0, 0, 1, 0, 0, 0, 0, 0, 0, 0, 0, 0\n 0]\n[0, 0, 0, 0, 0, 0, 0, 0, 0, 0, 0, 0, 0, 0\n 0, 0, 0, 0, 0, 1, 0, 0, 0, 0, 0, 0, 0, 0\n 0]\n[0, 0, 0, 0, 0, 0, 0, 1, 0, 0, 0, 0, 0, 0\n 0, 0, 0, 0, 0, 0, 0, 0, 0, 0, 0, 0, 0, 0\n 0]]", fillcolor="#e58139"] ;
32 -> 33 ;
34 [label="gini = 0.5\nsamples = 2\nvalue = [[1, 0, 0, 0, 0, 1, 0, 0, 0, 0, 0, 0, 0, 0\n 0, 0, 0, 0, 0, 0, 0, 0, 0, 0, 0, 0, 0, 0\n 0]\n[0, 0, 0, 0, 0, 0, 0, 0, 0, 0, 0, 0, 0, 0\n 0, 0, 1, 1, 0, 0, 0, 0, 0, 0, 0, 0, 0, 0\n 0]\n[0, 0, 0, 0, 0, 0, 1, 0, 1, 0, 0, 0, 0, 0\n 0, 0, 0, 0, 0, 0, 0, 0, 0, 0, 0, 0, 0, 0\n 0]]", fillcolor="#f2c2a0"] ;
32 -> 34 ;
35 [label="gini = 0.0\nsamples = 1\nvalue = [[0, 0, 0, 0, 0, 0, 0, 0, 0, 0, 0, 0, 0, 0\n 0, 0, 0, 0, 0, 0, 0, 0, 0, 0, 1, 0, 0, 0\n 0]\n[1, 0, 0, 0, 0, 0, 0, 0, 0, 0, 0, 0, 0, 0\n 0, 0, 0, 0, 0, 0, 0, 0, 0, 0, 0, 0, 0, 0\n 0]\n[0, 0, 0, 0, 0, 0, 0, 0, 0, 0, 0, 0, 0, 0\n 0, 1, 0, 0, 0, 0, 0, 0, 0, 0, 0, 0, 0, 0\n 0]]", fillcolor="#e58139"] ;
31 -> 35 ;
36 [label="gini = 0.5\nsamples = 2\nvalue = [[0, 1, 0, 0, 0, 0, 0, 0, 0, 0, 0, 0, 0, 0\n 0, 0, 0, 1, 0, 0, 0, 0, 0, 0, 0, 0, 0, 0\n 0]\n[0, 0, 0, 0, 0, 0, 0, 0, 0, 0, 1, 0, 0, 0\n 0, 0, 0, 0, 1, 0, 0, 0, 0, 0, 0, 0, 0, 0\n 0]\n[0, 0, 1, 0, 0, 0, 0, 0, 0, 1, 0, 0, 0, 0\n 0, 0, 0, 0, 0, 0, 0, 0, 0, 0, 0, 0, 0, 0\n 0]]", fillcolor="#f2c2a0"] ;
30 -> 36 ;
37 [label="gini = 0.0\nsamples = 1\nvalue = [[0, 0, 0, 0, 0, 0, 0, 0, 0, 0, 0, 0, 0, 0\n 0, 0, 0, 0, 0, 0, 0, 0, 0, 0, 0, 0, 0, 1\n 0]\n[0, 0, 0, 0, 0, 0, 0, 0, 0, 0, 0, 0, 0, 0\n 0, 0, 0, 0, 0, 0, 0, 0, 0, 0, 0, 0, 0, 0\n 1]\n[0, 0, 0, 0, 0, 0, 0, 0, 0, 0, 0, 0, 0, 0\n 0, 0, 0, 0, 0, 0, 0, 0, 1, 0, 0, 0, 0, 0\n 0]]", fillcolor="#e58139"] ;
19 -> 37 ;
38 [label="Food <= 0.5\ngini = 0.667\nsamples = 3\nvalue = [[0, 0, 0, 0, 0, 0, 0, 0, 0, 0, 1, 0, 1, 0\n 0, 0, 0, 0, 0, 1, 0, 0, 0, 0, 0, 0, 0, 0\n 0]\n[0, 1, 0, 0, 0, 0, 0, 0, 0, 0, 0, 0, 1, 0\n 0, 0, 0, 0, 0, 0, 1, 0, 0, 0, 0, 0, 0, 0\n 0]\n[0, 0, 0, 0, 0, 0, 0, 0, 0, 0, 0, 0, 0, 1\n 0, 0, 0, 1, 1, 0, 0, 0, 0, 0, 0, 0, 0, 0\n 0]]", fillcolor="#f7d8c2"] ;
18 -> 38 ;
39 [label="gini = 0.0\nsamples = 1\nvalue = [[0, 0, 0, 0, 0, 0, 0, 0, 0, 0, 0, 0, 1, 0\n 0, 0, 0, 0, 0, 0, 0, 0, 0, 0, 0, 0, 0, 0\n 0]\n[0, 1, 0, 0, 0, 0, 0, 0, 0, 0, 0, 0, 0, 0\n 0, 0, 0, 0, 0, 0, 0, 0, 0, 0, 0, 0, 0, 0\n 0]\n[0, 0, 0, 0, 0, 0, 0, 0, 0, 0, 0, 0, 0, 0\n 0, 0, 0, 0, 1, 0, 0, 0, 0, 0, 0, 0, 0, 0\n 0]]", fillcolor="#e58139"] ;
38 -> 39 ;
40 [label="Seaside <= 0.5\ngini = 0.5\nsamples = 2\nvalue = [[0, 0, 0, 0, 0, 0, 0, 0, 0, 0, 1, 0, 0, 0\n 0, 0, 0, 0, 0, 1, 0, 0, 0, 0, 0, 0, 0, 0\n 0]\n[0, 0, 0, 0, 0, 0, 0, 0, 0, 0, 0, 0, 1, 0\n 0, 0, 0, 0, 0, 0, 1, 0, 0, 0, 0, 0, 0, 0\n 0]\n[0, 0, 0, 0, 0, 0, 0, 0, 0, 0, 0, 0, 0, 1\n 0, 0, 0, 1, 0, 0, 0, 0, 0, 0, 0, 0, 0, 0\n 0]]", fillcolor="#f2c2a0"] ;
38 -> 40 ;
41 [label="gini = 0.0\nsamples = 1\nvalue = [[0, 0, 0, 0, 0, 0, 0, 0, 0, 0, 0, 0, 0, 0\n 0, 0, 0, 0, 0, 1, 0, 0, 0, 0, 0, 0, 0, 0\n 0]\n[0, 0, 0, 0, 0, 0, 0, 0, 0, 0, 0, 0, 1, 0\n 0, 0, 0, 0, 0, 0, 0, 0, 0, 0, 0, 0, 0, 0\n 0]\n[0, 0, 0, 0, 0, 0, 0, 0, 0, 0, 0, 0, 0, 0\n 0, 0, 0, 1, 0, 0, 0, 0, 0, 0, 0, 0, 0, 0\n 0]]", fillcolor="#e58139"] ;
40 -> 41 ;
42 [label="gini = 0.0\nsamples = 1\nvalue = [[0, 0, 0, 0, 0, 0, 0, 0, 0, 0, 1, 0, 0, 0\n 0, 0, 0, 0, 0, 0, 0, 0, 0, 0, 0, 0, 0, 0\n 0]\n[0, 0, 0, 0, 0, 0, 0, 0, 0, 0, 0, 0, 0, 0\n 0, 0, 0, 0, 0, 0, 1, 0, 0, 0, 0, 0, 0, 0\n 0]\n[0, 0, 0, 0, 0, 0, 0, 0, 0, 0, 0, 0, 0, 1\n 0, 0, 0, 0, 0, 0, 0, 0, 0, 0, 0, 0, 0, 0\n 0]]", fillcolor="#e58139"] ;
40 -> 42 ;
}